digraph Tree {
node [shape=box, style="filled, rounded", color="black", fontname="helvetica"] ;
edge [fontname="helvetica"] ;
0 [label="X[3] <= 4616.0\nentropy = 0.966\nsamples = 970\nvalue = [601, 933]", fillcolor="#b9dcf6"] ;
1 [label="X[13] <= 571.156\nentropy = 0.982\nsamples = 898\nvalue = [601, 825]", fillcolor="#c9e4f8"] ;
0 -> 1 [labeldistance=2.5, labelangle=45, headlabel="True"] ;
2 [label="X[52] <= 23.5\nentropy = 0.888\nsamples = 288\nvalue = [142, 323]", fillcolor="#90c8f0"] ;
1 -> 2 ;
3 [label="entropy = 0.0\nsamples = 7\nvalue = [12, 0]", fillcolor="#e58139"] ;
2 -> 3 ;
4 [label="X[52] <= 34.5\nentropy = 0.865\nsamples = 281\nvalue = [130, 323]", fillcolor="#89c4ef"] ;
2 -> 4 ;
5 [label="X[30] <= 0.633\nentropy = 0.955\nsamples = 134\nvalue = [83, 138]", fillcolor="#b0d8f5"] ;
4 -> 5 ;
6 [label="X[13] <= 543.078\nentropy = 0.922\nsamples = 116\nvalue = [64, 126]", fillcolor="#9ecff2"] ;
5 -> 6 ;
7 [label="X[56] <= 40.5\nentropy = 0.951\nsamples = 109\nvalue = [64, 109]", fillcolor="#add7f4"] ;
6 -> 7 ;
8 [label="X[20] <= 3.5\nentropy = 0.997\nsamples = 69\nvalue = [54, 62]", fillcolor="#e5f2fc"] ;
7 -> 8 ;
9 [label="X[34] <= 117.408\nentropy = 1.0\nsamples = 64\nvalue = [54, 53]", fillcolor="#fffdfb"] ;
8 -> 9 ;
10 [label="X[51] <= 28.5\nentropy = 0.971\nsamples = 50\nvalue = [32, 48]", fillcolor="#bddef6"] ;
9 -> 10 ;
11 [label="X[46] <= 171.45\nentropy = 0.567\nsamples = 8\nvalue = [2, 13]", fillcolor="#57ace9"] ;
10 -> 11 ;
12 [label="entropy = 0.0\nsamples = 1\nvalue = [1, 0]", fillcolor="#e58139"] ;
11 -> 12 ;
13 [label="X[32] <= 2.406\nentropy = 0.371\nsamples = 7\nvalue = [1, 13]", fillcolor="#48a5e7"] ;
11 -> 13 ;
14 [label="entropy = 0.0\nsamples = 6\nvalue = [0, 13]", fillcolor="#399de5"] ;
13 -> 14 ;
15 [label="entropy = 0.0\nsamples = 1\nvalue = [1, 0]", fillcolor="#e58139"] ;
13 -> 15 ;
16 [label="X[51] <= 35.5\nentropy = 0.996\nsamples = 42\nvalue = [30, 35]", fillcolor="#e3f1fb"] ;
10 -> 16 ;
17 [label="X[9] <= 0.562\nentropy = 0.957\nsamples = 23\nvalue = [23, 14]", fillcolor="#f5ceb2"] ;
16 -> 17 ;
18 [label="X[30] <= 0.062\nentropy = 0.857\nsamples = 20\nvalue = [23, 9]", fillcolor="#efb286"] ;
17 -> 18 ;
19 [label="X[25] <= 193.04\nentropy = 0.454\nsamples = 12\nvalue = [19, 2]", fillcolor="#e88e4e"] ;
18 -> 19 ;
20 [label="X[48] <= 130.0\nentropy = 0.286\nsamples = 11\nvalue = [19, 1]", fillcolor="#e68843"] ;
19 -> 20 ;
21 [label="X[42] <= 1.0\nentropy = 1.0\nsamples = 2\nvalue = [1, 1]", fillcolor="#ffffff"] ;
20 -> 21 ;
22 [label="entropy = 0.0\nsamples = 1\nvalue = [1, 0]", fillcolor="#e58139"] ;
21 -> 22 ;
23 [label="entropy = 0.0\nsamples = 1\nvalue = [0, 1]", fillcolor="#399de5"] ;
21 -> 23 ;
24 [label="entropy = 0.0\nsamples = 9\nvalue = [18, 0]", fillcolor="#e58139"] ;
20 -> 24 ;
25 [label="entropy = 0.0\nsamples = 1\nvalue = [0, 1]", fillcolor="#399de5"] ;
19 -> 25 ;
26 [label="X[59] <= 28.5\nentropy = 0.946\nsamples = 8\nvalue = [4, 7]", fillcolor="#aad5f4"] ;
18 -> 26 ;
27 [label="X[59] <= 20.0\nentropy = 0.544\nsamples = 6\nvalue = [1, 7]", fillcolor="#55abe9"] ;
26 -> 27 ;
28 [label="entropy = 0.0\nsamples = 1\nvalue = [1, 0]", fillcolor="#e58139"] ;
27 -> 28 ;
29 [label="entropy = 0.0\nsamples = 5\nvalue = [0, 7]", fillcolor="#399de5"] ;
27 -> 29 ;
30 [label="entropy = 0.0\nsamples = 2\nvalue = [3, 0]", fillcolor="#e58139"] ;
26 -> 30 ;
31 [label="entropy = 0.0\nsamples = 3\nvalue = [0, 5]", fillcolor="#399de5"] ;
17 -> 31 ;
32 [label="X[1] <= 1.5\nentropy = 0.811\nsamples = 19\nvalue = [7, 21]", fillcolor="#7bbeee"] ;
16 -> 32 ;
33 [label="X[57] <= 48.0\nentropy = 0.949\nsamples = 14\nvalue = [7, 12]", fillcolor="#acd6f4"] ;
32 -> 33 ;
34 [label="X[57] <= 46.5\nentropy = 1.0\nsamples = 10\nvalue = [7, 7]", fillcolor="#ffffff"] ;
33 -> 34 ;
35 [label="X[48] <= 157.5\nentropy = 0.764\nsamples = 7\nvalue = [2, 7]", fillcolor="#72b9ec"] ;
34 -> 35 ;
36 [label="entropy = 0.0\nsamples = 2\nvalue = [2, 0]", fillcolor="#e58139"] ;
35 -> 36 ;
37 [label="entropy = 0.0\nsamples = 5\nvalue = [0, 7]", fillcolor="#399de5"] ;
35 -> 37 ;
38 [label="entropy = 0.0\nsamples = 3\nvalue = [5, 0]", fillcolor="#e58139"] ;
34 -> 38 ;
39 [label="entropy = 0.0\nsamples = 4\nvalue = [0, 5]", fillcolor="#399de5"] ;
33 -> 39 ;
40 [label="entropy = 0.0\nsamples = 5\nvalue = [0, 9]", fillcolor="#399de5"] ;
32 -> 40 ;
41 [label="X[62] <= 41.5\nentropy = 0.691\nsamples = 14\nvalue = [22, 5]", fillcolor="#eb9e66"] ;
9 -> 41 ;
42 [label="entropy = 0.0\nsamples = 7\nvalue = [15, 0]", fillcolor="#e58139"] ;
41 -> 42 ;
43 [label="X[53] <= 31.0\nentropy = 0.98\nsamples = 7\nvalue = [7, 5]", fillcolor="#f8dbc6"] ;
41 -> 43 ;
44 [label="entropy = 0.0\nsamples = 2\nvalue = [6, 0]", fillcolor="#e58139"] ;
43 -> 44 ;
45 [label="X[52] <= 33.5\nentropy = 0.65\nsamples = 5\nvalue = [1, 5]", fillcolor="#61b1ea"] ;
43 -> 45 ;
46 [label="entropy = 0.0\nsamples = 4\nvalue = [0, 5]", fillcolor="#399de5"] ;
45 -> 46 ;
47 [label="entropy = 0.0\nsamples = 1\nvalue = [1, 0]", fillcolor="#e58139"] ;
45 -> 47 ;
48 [label="entropy = 0.0\nsamples = 5\nvalue = [0, 9]", fillcolor="#399de5"] ;
8 -> 48 ;
49 [label="X[53] <= 23.5\nentropy = 0.67\nsamples = 40\nvalue = [10, 47]", fillcolor="#63b2eb"] ;
7 -> 49 ;
50 [label="entropy = 0.0\nsamples = 14\nvalue = [0, 20]", fillcolor="#399de5"] ;
49 -> 50 ;
51 [label="X[50] <= 35.0\nentropy = 0.842\nsamples = 26\nvalue = [10, 27]", fillcolor="#82c1ef"] ;
49 -> 51 ;
52 [label="X[64] <= 40.5\nentropy = 0.951\nsamples = 21\nvalue = [10, 17]", fillcolor="#add7f4"] ;
51 -> 52 ;
53 [label="X[55] <= 18.0\nentropy = 0.439\nsamples = 8\nvalue = [1, 10]", fillcolor="#4da7e8"] ;
52 -> 53 ;
54 [label="entropy = 0.0\nsamples = 1\nvalue = [1, 0]", fillcolor="#e58139"] ;
53 -> 54 ;
55 [label="entropy = 0.0\nsamples = 7\nvalue = [0, 10]", fillcolor="#399de5"] ;
53 -> 55 ;
56 [label="X[55] <= 43.0\nentropy = 0.989\nsamples = 13\nvalue = [9, 7]", fillcolor="#f9e3d3"] ;
52 -> 56 ;
57 [label="X[35] <= 423.469\nentropy = 0.764\nsamples = 7\nvalue = [2, 7]", fillcolor="#72b9ec"] ;
56 -> 57 ;
58 [label="X[34] <= 74.25\nentropy = 0.918\nsamples = 3\nvalue = [2, 1]", fillcolor="#f2c09c"] ;
57 -> 58 ;
59 [label="entropy = 0.0\nsamples = 2\nvalue = [2, 0]", fillcolor="#e58139"] ;
58 -> 59 ;
60 [label="entropy = 0.0\nsamples = 1\nvalue = [0, 1]", fillcolor="#399de5"] ;
58 -> 60 ;
61 [label="entropy = 0.0\nsamples = 4\nvalue = [0, 6]", fillcolor="#399de5"] ;
57 -> 61 ;
62 [label="entropy = 0.0\nsamples = 6\nvalue = [7, 0]", fillcolor="#e58139"] ;
56 -> 62 ;
63 [label="entropy = 0.0\nsamples = 5\nvalue = [0, 10]", fillcolor="#399de5"] ;
51 -> 63 ;
64 [label="entropy = 0.0\nsamples = 7\nvalue = [0, 17]", fillcolor="#399de5"] ;
6 -> 64 ;
65 [label="X[34] <= 300.438\nentropy = 0.963\nsamples = 18\nvalue = [19, 12]", fillcolor="#f5d1b6"] ;
5 -> 65 ;
66 [label="X[28] <= 0.498\nentropy = 0.877\nsamples = 16\nvalue = [19, 8]", fillcolor="#f0b68c"] ;
65 -> 66 ;
67 [label="X[17] <= 1.5\nentropy = 0.738\nsamples = 15\nvalue = [19, 5]", fillcolor="#eca26d"] ;
66 -> 67 ;
68 [label="X[38] <= 3.5\nentropy = 0.896\nsamples = 10\nvalue = [11, 5]", fillcolor="#f1ba93"] ;
67 -> 68 ;
69 [label="entropy = 0.0\nsamples = 5\nvalue = [10, 0]", fillcolor="#e58139"] ;
68 -> 69 ;
70 [label="X[55] <= 31.5\nentropy = 0.65\nsamples = 5\nvalue = [1, 5]", fillcolor="#61b1ea"] ;
68 -> 70 ;
71 [label="entropy = 0.0\nsamples = 1\nvalue = [1, 0]", fillcolor="#e58139"] ;
70 -> 71 ;
72 [label="entropy = 0.0\nsamples = 4\nvalue = [0, 5]", fillcolor="#399de5"] ;
70 -> 72 ;
73 [label="entropy = 0.0\nsamples = 5\nvalue = [8, 0]", fillcolor="#e58139"] ;
67 -> 73 ;
74 [label="entropy = 0.0\nsamples = 1\nvalue = [0, 3]", fillcolor="#399de5"] ;
66 -> 74 ;
75 [label="entropy = 0.0\nsamples = 2\nvalue = [0, 4]", fillcolor="#399de5"] ;
65 -> 75 ;
76 [label="X[27] <= 0.078\nentropy = 0.727\nsamples = 147\nvalue = [47, 185]", fillcolor="#6bb6ec"] ;
4 -> 76 ;
77 [label="X[13] <= 47.5\nentropy = 0.866\nsamples = 82\nvalue = [36, 89]", fillcolor="#89c5f0"] ;
76 -> 77 ;
78 [label="entropy = 0.0\nsamples = 3\nvalue = [7, 0]", fillcolor="#e58139"] ;
77 -> 78 ;
79 [label="X[46] <= 191.77\nentropy = 0.804\nsamples = 79\nvalue = [29, 89]", fillcolor="#7abded"] ;
77 -> 79 ;
80 [label="X[46] <= 166.37\nentropy = 0.736\nsamples = 74\nvalue = [23, 88]", fillcolor="#6db7ec"] ;
79 -> 80 ;
81 [label="X[36] <= 33.0\nentropy = 0.971\nsamples = 9\nvalue = [9, 6]", fillcolor="#f6d5bd"] ;
80 -> 81 ;
82 [label="X[14] <= 3.0\nentropy = 0.971\nsamples = 7\nvalue = [4, 6]", fillcolor="#bddef6"] ;
81 -> 82 ;
83 [label="entropy = 0.0\nsamples = 3\nvalue = [4, 0]", fillcolor="#e58139"] ;
82 -> 83 ;
84 [label="entropy = 0.0\nsamples = 4\nvalue = [0, 6]", fillcolor="#399de5"] ;
82 -> 84 ;
85 [label="entropy = 0.0\nsamples = 2\nvalue = [5, 0]", fillcolor="#e58139"] ;
81 -> 85 ;
86 [label="X[63] <= 43.5\nentropy = 0.599\nsamples = 65\nvalue = [14, 82]", fillcolor="#5baee9"] ;
80 -> 86 ;
87 [label="X[54] <= 18.5\nentropy = 0.379\nsamples = 43\nvalue = [5, 63]", fillcolor="#49a5e7"] ;
86 -> 87 ;
88 [label="entropy = 0.0\nsamples = 1\nvalue = [1, 0]", fillcolor="#e58139"] ;
87 -> 88 ;
89 [label="X[14] <= 28.0\nentropy = 0.326\nsamples = 42\nvalue = [4, 63]", fillcolor="#46a3e7"] ;
87 -> 89 ;
90 [label="X[49] <= 26.5\nentropy = 0.267\nsamples = 41\nvalue = [3, 63]", fillcolor="#42a2e6"] ;
89 -> 90 ;
91 [label="X[53] <= 19.0\nentropy = 0.567\nsamples = 9\nvalue = [2, 13]", fillcolor="#57ace9"] ;
90 -> 91 ;
92 [label="entropy = 0.0\nsamples = 1\nvalue = [1, 0]", fillcolor="#e58139"] ;
91 -> 92 ;
93 [label="X[41] <= 0.5\nentropy = 0.371\nsamples = 8\nvalue = [1, 13]", fillcolor="#48a5e7"] ;
91 -> 93 ;
94 [label="entropy = 0.0\nsamples = 7\nvalue = [0, 13]", fillcolor="#399de5"] ;
93 -> 94 ;
95 [label="entropy = 0.0\nsamples = 1\nvalue = [1, 0]", fillcolor="#e58139"] ;
93 -> 95 ;
96 [label="X[25] <= 196.85\nentropy = 0.139\nsamples = 32\nvalue = [1, 50]", fillcolor="#3d9fe6"] ;
90 -> 96 ;
97 [label="entropy = 0.0\nsamples = 30\nvalue = [0, 48]", fillcolor="#399de5"] ;
96 -> 97 ;
98 [label="X[24] <= 184.15\nentropy = 0.918\nsamples = 2\nvalue = [1, 2]", fillcolor="#9ccef2"] ;
96 -> 98 ;
99 [label="entropy = 0.0\nsamples = 1\nvalue = [0, 2]", fillcolor="#399de5"] ;
98 -> 99 ;
100 [label="entropy = 0.0\nsamples = 1\nvalue = [1, 0]", fillcolor="#e58139"] ;
98 -> 100 ;
101 [label="entropy = 0.0\nsamples = 1\nvalue = [1, 0]", fillcolor="#e58139"] ;
89 -> 101 ;
102 [label="X[49] <= 25.5\nentropy = 0.906\nsamples = 22\nvalue = [9, 19]", fillcolor="#97cbf1"] ;
86 -> 102 ;
103 [label="entropy = 0.0\nsamples = 3\nvalue = [4, 0]", fillcolor="#e58139"] ;
102 -> 103 ;
104 [label="X[63] <= 45.5\nentropy = 0.738\nsamples = 19\nvalue = [5, 19]", fillcolor="#6db7ec"] ;
102 -> 104 ;
105 [label="X[53] <= 35.5\nentropy = 0.971\nsamples = 7\nvalue = [4, 6]", fillcolor="#bddef6"] ;
104 -> 105 ;
106 [label="X[49] <= 35.0\nentropy = 0.811\nsamples = 6\nvalue = [2, 6]", fillcolor="#7bbeee"] ;
105 -> 106 ;
107 [label="entropy = 0.0\nsamples = 4\nvalue = [0, 6]", fillcolor="#399de5"] ;
106 -> 107 ;
108 [label="entropy = 0.0\nsamples = 2\nvalue = [2, 0]", fillcolor="#e58139"] ;
106 -> 108 ;
109 [label="entropy = 0.0\nsamples = 1\nvalue = [2, 0]", fillcolor="#e58139"] ;
105 -> 109 ;
110 [label="X[13] <= 114.056\nentropy = 0.371\nsamples = 12\nvalue = [1, 13]", fillcolor="#48a5e7"] ;
104 -> 110 ;
111 [label="entropy = 0.0\nsamples = 1\nvalue = [1, 0]", fillcolor="#e58139"] ;
110 -> 111 ;
112 [label="entropy = 0.0\nsamples = 11\nvalue = [0, 13]", fillcolor="#399de5"] ;
110 -> 112 ;
113 [label="X[59] <= 30.0\nentropy = 0.592\nsamples = 5\nvalue = [6, 1]", fillcolor="#e9965a"] ;
79 -> 113 ;
114 [label="entropy = 0.0\nsamples = 4\nvalue = [6, 0]", fillcolor="#e58139"] ;
113 -> 114 ;
115 [label="entropy = 0.0\nsamples = 1\nvalue = [0, 1]", fillcolor="#399de5"] ;
113 -> 115 ;
116 [label="X[29] <= 0.424\nentropy = 0.478\nsamples = 65\nvalue = [11, 96]", fillcolor="#50a8e8"] ;
76 -> 116 ;
117 [label="X[57] <= 41.5\nentropy = 0.276\nsamples = 49\nvalue = [4, 80]", fillcolor="#43a2e6"] ;
116 -> 117 ;
118 [label="X[21] <= 0.5\nentropy = 0.684\nsamples = 13\nvalue = [4, 18]", fillcolor="#65b3eb"] ;
117 -> 118 ;
119 [label="entropy = 0.0\nsamples = 7\nvalue = [0, 14]", fillcolor="#399de5"] ;
118 -> 119 ;
120 [label="X[26] <= 187.5\nentropy = 1.0\nsamples = 6\nvalue = [4, 4]", fillcolor="#ffffff"] ;
118 -> 120 ;
121 [label="entropy = 0.0\nsamples = 3\nvalue = [3, 0]", fillcolor="#e58139"] ;
120 -> 121 ;
122 [label="X[28] <= 0.558\nentropy = 0.722\nsamples = 3\nvalue = [1, 4]", fillcolor="#6ab6ec"] ;
120 -> 122 ;
123 [label="entropy = 0.0\nsamples = 2\nvalue = [0, 4]", fillcolor="#399de5"] ;
122 -> 123 ;
124 [label="entropy = 0.0\nsamples = 1\nvalue = [1, 0]", fillcolor="#e58139"] ;
122 -> 124 ;
125 [label="entropy = 0.0\nsamples = 36\nvalue = [0, 62]", fillcolor="#399de5"] ;
117 -> 125 ;
126 [label="X[62] <= 38.5\nentropy = 0.887\nsamples = 16\nvalue = [7, 16]", fillcolor="#90c8f0"] ;
116 -> 126 ;
127 [label="entropy = 0.0\nsamples = 6\nvalue = [0, 10]", fillcolor="#399de5"] ;
126 -> 127 ;
128 [label="X[11] <= 0.735\nentropy = 0.996\nsamples = 10\nvalue = [7, 6]", fillcolor="#fbede3"] ;
126 -> 128 ;
129 [label="X[32] <= 5.076\nentropy = 0.881\nsamples = 8\nvalue = [7, 3]", fillcolor="#f0b78e"] ;
128 -> 129 ;
130 [label="X[34] <= 77.443\nentropy = 0.544\nsamples = 6\nvalue = [7, 1]", fillcolor="#e99355"] ;
129 -> 130 ;
131 [label="entropy = 0.0\nsamples = 1\nvalue = [0, 1]", fillcolor="#399de5"] ;
130 -> 131 ;
132 [label="entropy = 0.0\nsamples = 5\nvalue = [7, 0]", fillcolor="#e58139"] ;
130 -> 132 ;
133 [label="entropy = 0.0\nsamples = 2\nvalue = [0, 2]", fillcolor="#399de5"] ;
129 -> 133 ;
134 [label="entropy = 0.0\nsamples = 2\nvalue = [0, 3]", fillcolor="#399de5"] ;
128 -> 134 ;
135 [label="X[49] <= 30.5\nentropy = 0.999\nsamples = 610\nvalue = [459, 502]", fillcolor="#eef7fd"] ;
1 -> 135 ;
136 [label="X[28] <= 0.707\nentropy = 0.992\nsamples = 374\nvalue = [330, 266]", fillcolor="#fae7d9"] ;
135 -> 136 ;
137 [label="X[26] <= 234.0\nentropy = 0.989\nsamples = 369\nvalue = [330, 257]", fillcolor="#f9e3d3"] ;
136 -> 137 ;
138 [label="X[50] <= 33.5\nentropy = 0.995\nsamples = 354\nvalue = [304, 256]", fillcolor="#fbebe0"] ;
137 -> 138 ;
139 [label="X[16] <= 3.5\nentropy = 1.0\nsamples = 292\nvalue = [225, 237]", fillcolor="#f5fafe"] ;
138 -> 139 ;
140 [label="X[49] <= 26.5\nentropy = 0.994\nsamples = 261\nvalue = [188, 225]", fillcolor="#deeffb"] ;
139 -> 140 ;
141 [label="X[13] <= 761.875\nentropy = 0.993\nsamples = 130\nvalue = [114, 93]", fillcolor="#fae8db"] ;
140 -> 141 ;
142 [label="X[52] <= 32.5\nentropy = 0.924\nsamples = 74\nvalue = [80, 41]", fillcolor="#f2c29e"] ;
141 -> 142 ;
143 [label="X[11] <= 0.406\nentropy = 0.323\nsamples = 18\nvalue = [32, 2]", fillcolor="#e78945"] ;
142 -> 143 ;
144 [label="X[60] <= 29.5\nentropy = 0.918\nsamples = 4\nvalue = [4, 2]", fillcolor="#f2c09c"] ;
143 -> 144 ;
145 [label="X[3] <= 373.0\nentropy = 0.918\nsamples = 3\nvalue = [1, 2]", fillcolor="#9ccef2"] ;
144 -> 145 ;
146 [label="entropy = 0.0\nsamples = 1\nvalue = [1, 0]", fillcolor="#e58139"] ;
145 -> 146 ;
147 [label="entropy = 0.0\nsamples = 2\nvalue = [0, 2]", fillcolor="#399de5"] ;
145 -> 147 ;
148 [label="entropy = 0.0\nsamples = 1\nvalue = [3, 0]", fillcolor="#e58139"] ;
144 -> 148 ;
149 [label="entropy = 0.0\nsamples = 14\nvalue = [28, 0]", fillcolor="#e58139"] ;
143 -> 149 ;
150 [label="X[25] <= 166.37\nentropy = 0.992\nsamples = 56\nvalue = [48, 39]", fillcolor="#fae7da"] ;
142 -> 150 ;
151 [label="entropy = 0.0\nsamples = 6\nvalue = [10, 0]", fillcolor="#e58139"] ;
150 -> 151 ;
152 [label="X[30] <= 0.256\nentropy = 1.0\nsamples = 50\nvalue = [38, 39]", fillcolor="#fafcfe"] ;
150 -> 152 ;
153 [label="X[60] <= 26.5\nentropy = 0.973\nsamples = 40\nvalue = [25, 37]", fillcolor="#bfdff7"] ;
152 -> 153 ;
154 [label="entropy = 0.0\nsamples = 4\nvalue = [7, 0]", fillcolor="#e58139"] ;
153 -> 154 ;
155 [label="X[3] <= 1251.0\nentropy = 0.912\nsamples = 36\nvalue = [18, 37]", fillcolor="#99cdf2"] ;
153 -> 155 ;
156 [label="X[47] <= 172.72\nentropy = 0.323\nsamples = 10\nvalue = [1, 16]", fillcolor="#45a3e7"] ;
155 -> 156 ;
157 [label="entropy = 0.0\nsamples = 1\nvalue = [1, 0]", fillcolor="#e58139"] ;
156 -> 157 ;
158 [label="entropy = 0.0\nsamples = 9\nvalue = [0, 16]", fillcolor="#399de5"] ;
156 -> 158 ;
159 [label="X[54] <= 27.5\nentropy = 0.992\nsamples = 26\nvalue = [17, 21]", fillcolor="#d9ecfa"] ;
155 -> 159 ;
160 [label="X[56] <= 40.0\nentropy = 0.85\nsamples = 19\nvalue = [8, 21]", fillcolor="#84c2ef"] ;
159 -> 160 ;
161 [label="entropy = 0.0\nsamples = 1\nvalue = [1, 0]", fillcolor="#e58139"] ;
160 -> 161 ;
162 [label="X[25] <= 170.18\nentropy = 0.811\nsamples = 18\nvalue = [7, 21]", fillcolor="#7bbeee"] ;
160 -> 162 ;
163 [label="entropy = 0.0\nsamples = 1\nvalue = [2, 0]", fillcolor="#e58139"] ;
162 -> 163 ;
164 [label="X[0] <= 7.5\nentropy = 0.706\nsamples = 17\nvalue = [5, 21]", fillcolor="#68b4eb"] ;
162 -> 164 ;
165 [label="entropy = 0.0\nsamples = 12\nvalue = [0, 20]", fillcolor="#399de5"] ;
164 -> 165 ;
166 [label="X[48] <= 120.0\nentropy = 0.65\nsamples = 5\nvalue = [5, 1]", fillcolor="#ea9a61"] ;
164 -> 166 ;
167 [label="entropy = 0.0\nsamples = 1\nvalue = [0, 1]", fillcolor="#399de5"] ;
166 -> 167 ;
168 [label="entropy = 0.0\nsamples = 4\nvalue = [5, 0]", fillcolor="#e58139"] ;
166 -> 168 ;
169 [label="entropy = 0.0\nsamples = 7\nvalue = [9, 0]", fillcolor="#e58139"] ;
159 -> 169 ;
170 [label="X[25] <= 173.99\nentropy = 0.567\nsamples = 10\nvalue = [13, 2]", fillcolor="#e99457"] ;
152 -> 170 ;
171 [label="entropy = 0.0\nsamples = 1\nvalue = [0, 1]", fillcolor="#399de5"] ;
170 -> 171 ;
172 [label="X[27] <= 1.25\nentropy = 0.371\nsamples = 9\nvalue = [13, 1]", fillcolor="#e78b48"] ;
170 -> 172 ;
173 [label="entropy = 0.0\nsamples = 8\nvalue = [13, 0]", fillcolor="#e58139"] ;
172 -> 173 ;
174 [label="entropy = 0.0\nsamples = 1\nvalue = [0, 1]", fillcolor="#399de5"] ;
172 -> 174 ;
175 [label="X[3] <= 2559.5\nentropy = 0.968\nsamples = 56\nvalue = [34, 52]", fillcolor="#baddf6"] ;
141 -> 175 ;
176 [label="X[56] <= 35.0\nentropy = 0.86\nsamples = 33\nvalue = [15, 38]", fillcolor="#87c4ef"] ;
175 -> 176 ;
177 [label="X[35] <= 824.664\nentropy = 0.722\nsamples = 8\nvalue = [8, 2]", fillcolor="#eca06a"] ;
176 -> 177 ;
178 [label="X[9] <= 0.531\nentropy = 0.503\nsamples = 7\nvalue = [8, 1]", fillcolor="#e89152"] ;
177 -> 178 ;
179 [label="entropy = 0.0\nsamples = 6\nvalue = [8, 0]", fillcolor="#e58139"] ;
178 -> 179 ;
180 [label="entropy = 0.0\nsamples = 1\nvalue = [0, 1]", fillcolor="#399de5"] ;
178 -> 180 ;
181 [label="entropy = 0.0\nsamples = 1\nvalue = [0, 1]", fillcolor="#399de5"] ;
177 -> 181 ;
182 [label="X[51] <= 39.5\nentropy = 0.641\nsamples = 25\nvalue = [7, 36]", fillcolor="#5fb0ea"] ;
176 -> 182 ;
183 [label="X[48] <= 140.0\nentropy = 0.406\nsamples = 20\nvalue = [3, 34]", fillcolor="#4aa6e7"] ;
182 -> 183 ;
184 [label="entropy = 0.0\nsamples = 7\nvalue = [0, 17]", fillcolor="#399de5"] ;
183 -> 184 ;
185 [label="X[52] <= 37.5\nentropy = 0.61\nsamples = 13\nvalue = [3, 17]", fillcolor="#5caeea"] ;
183 -> 185 ;
186 [label="entropy = 0.0\nsamples = 10\nvalue = [0, 16]", fillcolor="#399de5"] ;
185 -> 186 ;
187 [label="X[49] <= 25.5\nentropy = 0.811\nsamples = 3\nvalue = [3, 1]", fillcolor="#eeab7b"] ;
185 -> 187 ;
188 [label="entropy = 0.0\nsamples = 1\nvalue = [0, 1]", fillcolor="#399de5"] ;
187 -> 188 ;
189 [label="entropy = 0.0\nsamples = 2\nvalue = [3, 0]", fillcolor="#e58139"] ;
187 -> 189 ;
190 [label="X[59] <= 29.0\nentropy = 0.918\nsamples = 5\nvalue = [4, 2]", fillcolor="#f2c09c"] ;
182 -> 190 ;
191 [label="entropy = 0.0\nsamples = 3\nvalue = [4, 0]", fillcolor="#e58139"] ;
190 -> 191 ;
192 [label="entropy = 0.0\nsamples = 2\nvalue = [0, 2]", fillcolor="#399de5"] ;
190 -> 192 ;
193 [label="X[3] <= 3950.5\nentropy = 0.983\nsamples = 23\nvalue = [19, 14]", fillcolor="#f8decb"] ;
175 -> 193 ;
194 [label="X[8] <= 0.25\nentropy = 0.792\nsamples = 14\nvalue = [16, 5]", fillcolor="#eda877"] ;
193 -> 194 ;
195 [label="X[47] <= 177.8\nentropy = 0.544\nsamples = 9\nvalue = [14, 2]", fillcolor="#e99355"] ;
194 -> 195 ;
196 [label="X[33] <= 0.5\nentropy = 1.0\nsamples = 3\nvalue = [2, 2]", fillcolor="#ffffff"] ;
195 -> 196 ;
197 [label="entropy = 0.0\nsamples = 1\nvalue = [2, 0]", fillcolor="#e58139"] ;
196 -> 197 ;
198 [label="entropy = 0.0\nsamples = 2\nvalue = [0, 2]", fillcolor="#399de5"] ;
196 -> 198 ;
199 [label="entropy = 0.0\nsamples = 6\nvalue = [12, 0]", fillcolor="#e58139"] ;
195 -> 199 ;
200 [label="X[58] <= 46.5\nentropy = 0.971\nsamples = 5\nvalue = [2, 3]", fillcolor="#bddef6"] ;
194 -> 200 ;
201 [label="X[49] <= 25.5\nentropy = 0.918\nsamples = 3\nvalue = [2, 1]", fillcolor="#f2c09c"] ;
200 -> 201 ;
202 [label="entropy = 0.0\nsamples = 2\nvalue = [2, 0]", fillcolor="#e58139"] ;
201 -> 202 ;
203 [label="entropy = 0.0\nsamples = 1\nvalue = [0, 1]", fillcolor="#399de5"] ;
201 -> 203 ;
204 [label="entropy = 0.0\nsamples = 2\nvalue = [0, 2]", fillcolor="#399de5"] ;
200 -> 204 ;
205 [label="X[54] <= 26.5\nentropy = 0.811\nsamples = 9\nvalue = [3, 9]", fillcolor="#7bbeee"] ;
193 -> 205 ;
206 [label="entropy = 0.0\nsamples = 7\nvalue = [0, 9]", fillcolor="#399de5"] ;
205 -> 206 ;
207 [label="entropy = 0.0\nsamples = 2\nvalue = [3, 0]", fillcolor="#e58139"] ;
205 -> 207 ;
208 [label="X[10] <= 5.625\nentropy = 0.942\nsamples = 131\nvalue = [74, 132]", fillcolor="#a8d4f4"] ;
140 -> 208 ;
209 [label="X[26] <= 120.0\nentropy = 0.963\nsamples = 122\nvalue = [74, 117]", fillcolor="#b6dbf5"] ;
208 -> 209 ;
210 [label="X[6] <= 0.461\nentropy = 0.592\nsamples = 5\nvalue = [6, 1]", fillcolor="#e9965a"] ;
209 -> 210 ;
211 [label="entropy = 0.0\nsamples = 4\nvalue = [6, 0]", fillcolor="#e58139"] ;
210 -> 211 ;
212 [label="entropy = 0.0\nsamples = 1\nvalue = [0, 1]", fillcolor="#399de5"] ;
210 -> 212 ;
213 [label="X[57] <= 46.5\nentropy = 0.95\nsamples = 117\nvalue = [68, 116]", fillcolor="#add6f4"] ;
209 -> 213 ;
214 [label="X[3] <= 4306.5\nentropy = 0.902\nsamples = 94\nvalue = [48, 103]", fillcolor="#95cbf1"] ;
213 -> 214 ;
215 [label="X[50] <= 27.5\nentropy = 0.851\nsamples = 88\nvalue = [39, 102]", fillcolor="#85c2ef"] ;
214 -> 215 ;
216 [label="X[52] <= 35.5\nentropy = 0.469\nsamples = 36\nvalue = [6, 54]", fillcolor="#4fa8e8"] ;
215 -> 216 ;
217 [label="X[3] <= 410.0\nentropy = 0.149\nsamples = 26\nvalue = [1, 46]", fillcolor="#3d9fe6"] ;
216 -> 217 ;
218 [label="X[27] <= 0.031\nentropy = 0.469\nsamples = 5\nvalue = [1, 9]", fillcolor="#4fa8e8"] ;
217 -> 218 ;
219 [label="entropy = 0.0\nsamples = 3\nvalue = [0, 7]", fillcolor="#399de5"] ;
218 -> 219 ;
220 [label="X[25] <= 176.53\nentropy = 0.918\nsamples = 2\nvalue = [1, 2]", fillcolor="#9ccef2"] ;
218 -> 220 ;
221 [label="entropy = 0.0\nsamples = 1\nvalue = [0, 2]", fillcolor="#399de5"] ;
220 -> 221 ;
222 [label="entropy = 0.0\nsamples = 1\nvalue = [1, 0]", fillcolor="#e58139"] ;
220 -> 222 ;
223 [label="entropy = 0.0\nsamples = 21\nvalue = [0, 37]", fillcolor="#399de5"] ;
217 -> 223 ;
224 [label="X[31] <= 0.047\nentropy = 0.961\nsamples = 10\nvalue = [5, 8]", fillcolor="#b5daf5"] ;
216 -> 224 ;
225 [label="X[11] <= 0.375\nentropy = 0.863\nsamples = 6\nvalue = [5, 2]", fillcolor="#efb388"] ;
224 -> 225 ;
226 [label="entropy = 0.0\nsamples = 2\nvalue = [0, 2]", fillcolor="#399de5"] ;
225 -> 226 ;
227 [label="entropy = 0.0\nsamples = 4\nvalue = [5, 0]", fillcolor="#e58139"] ;
225 -> 227 ;
228 [label="entropy = 0.0\nsamples = 4\nvalue = [0, 6]", fillcolor="#399de5"] ;
224 -> 228 ;
229 [label="X[10] <= 2.875\nentropy = 0.975\nsamples = 52\nvalue = [33, 48]", fillcolor="#c1e0f7"] ;
215 -> 229 ;
230 [label="X[58] <= 44.5\nentropy = 0.992\nsamples = 47\nvalue = [33, 41]", fillcolor="#d8ecfa"] ;
229 -> 230 ;
231 [label="X[21] <= 0.5\nentropy = 0.901\nsamples = 24\nvalue = [13, 28]", fillcolor="#95caf1"] ;
230 -> 231 ;
232 [label="X[64] <= 27.0\nentropy = 0.684\nsamples = 20\nvalue = [6, 27]", fillcolor="#65b3eb"] ;
231 -> 232 ;
233 [label="entropy = 0.0\nsamples = 3\nvalue = [4, 0]", fillcolor="#e58139"] ;
232 -> 233 ;
234 [label="X[47] <= 184.15\nentropy = 0.362\nsamples = 17\nvalue = [2, 27]", fillcolor="#48a4e7"] ;
232 -> 234 ;
235 [label="X[7] <= 0.125\nentropy = 0.684\nsamples = 8\nvalue = [2, 9]", fillcolor="#65b3eb"] ;
234 -> 235 ;
236 [label="entropy = 0.0\nsamples = 4\nvalue = [0, 5]", fillcolor="#399de5"] ;
235 -> 236 ;
237 [label="X[56] <= 43.5\nentropy = 0.918\nsamples = 4\nvalue = [2, 4]", fillcolor="#9ccef2"] ;
235 -> 237 ;
238 [label="entropy = 0.0\nsamples = 2\nvalue = [2, 0]", fillcolor="#e58139"] ;
237 -> 238 ;
239 [label="entropy = 0.0\nsamples = 2\nvalue = [0, 4]", fillcolor="#399de5"] ;
237 -> 239 ;
240 [label="entropy = 0.0\nsamples = 9\nvalue = [0, 18]", fillcolor="#399de5"] ;
234 -> 240 ;
241 [label="X[27] <= 0.25\nentropy = 0.544\nsamples = 4\nvalue = [7, 1]", fillcolor="#e99355"] ;
231 -> 241 ;
242 [label="X[58] <= 43.0\nentropy = 0.918\nsamples = 2\nvalue = [2, 1]", fillcolor="#f2c09c"] ;
241 -> 242 ;
243 [label="entropy = 0.0\nsamples = 1\nvalue = [2, 0]", fillcolor="#e58139"] ;
242 -> 243 ;
244 [label="entropy = 0.0\nsamples = 1\nvalue = [0, 1]", fillcolor="#399de5"] ;
242 -> 244 ;
245 [label="entropy = 0.0\nsamples = 2\nvalue = [5, 0]", fillcolor="#e58139"] ;
241 -> 245 ;
246 [label="X[34] <= 104.918\nentropy = 0.967\nsamples = 23\nvalue = [20, 13]", fillcolor="#f6d3ba"] ;
230 -> 246 ;
247 [label="X[60] <= 30.5\nentropy = 0.742\nsamples = 12\nvalue = [15, 4]", fillcolor="#eca36e"] ;
246 -> 247 ;
248 [label="X[52] <= 29.0\nentropy = 0.523\nsamples = 10\nvalue = [15, 2]", fillcolor="#e89253"] ;
247 -> 248 ;
249 [label="X[30] <= 0.415\nentropy = 1.0\nsamples = 4\nvalue = [2, 2]", fillcolor="#ffffff"] ;
248 -> 249 ;
250 [label="entropy = 0.0\nsamples = 2\nvalue = [0, 2]", fillcolor="#399de5"] ;
249 -> 250 ;
251 [label="entropy = 0.0\nsamples = 2\nvalue = [2, 0]", fillcolor="#e58139"] ;
249 -> 251 ;
252 [label="entropy = 0.0\nsamples = 6\nvalue = [13, 0]", fillcolor="#e58139"] ;
248 -> 252 ;
253 [label="entropy = 0.0\nsamples = 2\nvalue = [0, 2]", fillcolor="#399de5"] ;
247 -> 253 ;
254 [label="X[47] <= 180.34\nentropy = 0.94\nsamples = 11\nvalue = [5, 9]", fillcolor="#a7d3f3"] ;
246 -> 254 ;
255 [label="X[24] <= 168.91\nentropy = 0.722\nsamples = 5\nvalue = [4, 1]", fillcolor="#eca06a"] ;
254 -> 255 ;
256 [label="entropy = 0.0\nsamples = 2\nvalue = [2, 0]", fillcolor="#e58139"] ;
255 -> 256 ;
257 [label="X[27] <= 0.094\nentropy = 0.918\nsamples = 3\nvalue = [2, 1]", fillcolor="#f2c09c"] ;
255 -> 257 ;
258 [label="entropy = 0.0\nsamples = 2\nvalue = [2, 0]", fillcolor="#e58139"] ;
257 -> 258 ;
259 [label="entropy = 0.0\nsamples = 1\nvalue = [0, 1]", fillcolor="#399de5"] ;
257 -> 259 ;
260 [label="X[53] <= 16.5\nentropy = 0.503\nsamples = 6\nvalue = [1, 8]", fillcolor="#52a9e8"] ;
254 -> 260 ;
261 [label="entropy = 0.0\nsamples = 1\nvalue = [1, 0]", fillcolor="#e58139"] ;
260 -> 261 ;
262 [label="entropy = 0.0\nsamples = 5\nvalue = [0, 8]", fillcolor="#399de5"] ;
260 -> 262 ;
263 [label="entropy = 0.0\nsamples = 5\nvalue = [0, 7]", fillcolor="#399de5"] ;
229 -> 263 ;
264 [label="X[35] <= 656.68\nentropy = 0.469\nsamples = 6\nvalue = [9, 1]", fillcolor="#e88f4f"] ;
214 -> 264 ;
265 [label="entropy = 0.0\nsamples = 2\nvalue = [4, 0]", fillcolor="#e58139"] ;
264 -> 265 ;
266 [label="X[48] <= 225.0\nentropy = 0.65\nsamples = 4\nvalue = [5, 1]", fillcolor="#ea9a61"] ;
264 -> 266 ;
267 [label="entropy = 0.0\nsamples = 3\nvalue = [5, 0]", fillcolor="#e58139"] ;
266 -> 267 ;
268 [label="entropy = 0.0\nsamples = 1\nvalue = [0, 1]", fillcolor="#399de5"] ;
266 -> 268 ;
269 [label="X[25] <= 176.53\nentropy = 0.967\nsamples = 23\nvalue = [20, 13]", fillcolor="#f6d3ba"] ;
213 -> 269 ;
270 [label="X[63] <= 45.0\nentropy = 0.503\nsamples = 6\nvalue = [1, 8]", fillcolor="#52a9e8"] ;
269 -> 270 ;
271 [label="entropy = 0.0\nsamples = 5\nvalue = [0, 8]", fillcolor="#399de5"] ;
270 -> 271 ;
272 [label="entropy = 0.0\nsamples = 1\nvalue = [1, 0]", fillcolor="#e58139"] ;
270 -> 272 ;
273 [label="X[8] <= 0.312\nentropy = 0.738\nsamples = 17\nvalue = [19, 5]", fillcolor="#eca26d"] ;
269 -> 273 ;
274 [label="X[11] <= 0.875\nentropy = 0.98\nsamples = 10\nvalue = [7, 5]", fillcolor="#f8dbc6"] ;
273 -> 274 ;
275 [label="entropy = 0.0\nsamples = 5\nvalue = [6, 0]", fillcolor="#e58139"] ;
274 -> 275 ;
276 [label="X[36] <= 35.0\nentropy = 0.65\nsamples = 5\nvalue = [1, 5]", fillcolor="#61b1ea"] ;
274 -> 276 ;
277 [label="entropy = 0.0\nsamples = 4\nvalue = [0, 5]", fillcolor="#399de5"] ;
276 -> 277 ;
278 [label="entropy = 0.0\nsamples = 1\nvalue = [1, 0]", fillcolor="#e58139"] ;
276 -> 278 ;
279 [label="entropy = 0.0\nsamples = 7\nvalue = [12, 0]", fillcolor="#e58139"] ;
273 -> 279 ;
280 [label="entropy = 0.0\nsamples = 9\nvalue = [0, 15]", fillcolor="#399de5"] ;
208 -> 280 ;
281 [label="X[56] <= 44.5\nentropy = 0.803\nsamples = 31\nvalue = [37, 12]", fillcolor="#edaa79"] ;
139 -> 281 ;
282 [label="X[34] <= 158.77\nentropy = 0.9\nsamples = 25\nvalue = [26, 12]", fillcolor="#f1bb94"] ;
281 -> 282 ;
283 [label="X[26] <= 142.5\nentropy = 0.771\nsamples = 19\nvalue = [24, 7]", fillcolor="#eda673"] ;
282 -> 283 ;
284 [label="entropy = 0.0\nsamples = 7\nvalue = [14, 0]", fillcolor="#e58139"] ;
283 -> 284 ;
285 [label="X[33] <= 0.105\nentropy = 0.977\nsamples = 12\nvalue = [10, 7]", fillcolor="#f7d9c4"] ;
283 -> 285 ;
286 [label="X[7] <= 0.534\nentropy = 0.65\nsamples = 5\nvalue = [1, 5]", fillcolor="#61b1ea"] ;
285 -> 286 ;
287 [label="entropy = 0.0\nsamples = 4\nvalue = [0, 5]", fillcolor="#399de5"] ;
286 -> 287 ;
288 [label="entropy = 0.0\nsamples = 1\nvalue = [1, 0]", fillcolor="#e58139"] ;
286 -> 288 ;
289 [label="X[29] <= 0.198\nentropy = 0.684\nsamples = 7\nvalue = [9, 2]", fillcolor="#eb9d65"] ;
285 -> 289 ;
290 [label="entropy = 0.0\nsamples = 5\nvalue = [9, 0]", fillcolor="#e58139"] ;
289 -> 290 ;
291 [label="entropy = 0.0\nsamples = 2\nvalue = [0, 2]", fillcolor="#399de5"] ;
289 -> 291 ;
292 [label="X[32] <= 3.423\nentropy = 0.863\nsamples = 6\nvalue = [2, 5]", fillcolor="#88c4ef"] ;
282 -> 292 ;
293 [label="entropy = 0.0\nsamples = 1\nvalue = [2, 0]", fillcolor="#e58139"] ;
292 -> 293 ;
294 [label="entropy = 0.0\nsamples = 5\nvalue = [0, 5]", fillcolor="#399de5"] ;
292 -> 294 ;
295 [label="entropy = 0.0\nsamples = 6\nvalue = [11, 0]", fillcolor="#e58139"] ;
281 -> 295 ;
296 [label="X[7] <= 0.297\nentropy = 0.71\nsamples = 62\nvalue = [79, 19]", fillcolor="#eb9f69"] ;
138 -> 296 ;
297 [label="X[32] <= 3.062\nentropy = 0.873\nsamples = 39\nvalue = [41, 17]", fillcolor="#f0b58b"] ;
296 -> 297 ;
298 [label="X[41] <= 0.5\nentropy = 0.995\nsamples = 24\nvalue = [19, 16]", fillcolor="#fbebe0"] ;
297 -> 298 ;
299 [label="X[43] <= 0.5\nentropy = 0.792\nsamples = 14\nvalue = [16, 5]", fillcolor="#eda877"] ;
298 -> 299 ;
300 [label="entropy = 0.0\nsamples = 7\nvalue = [12, 0]", fillcolor="#e58139"] ;
299 -> 300 ;
301 [label="X[57] <= 41.5\nentropy = 0.991\nsamples = 7\nvalue = [4, 5]", fillcolor="#d7ebfa"] ;
299 -> 301 ;
302 [label="entropy = 0.0\nsamples = 2\nvalue = [2, 0]", fillcolor="#e58139"] ;
301 -> 302 ;
303 [label="X[46] <= 184.15\nentropy = 0.863\nsamples = 5\nvalue = [2, 5]", fillcolor="#88c4ef"] ;
301 -> 303 ;
304 [label="entropy = 0.0\nsamples = 3\nvalue = [0, 5]", fillcolor="#399de5"] ;
303 -> 304 ;
305 [label="entropy = 0.0\nsamples = 2\nvalue = [2, 0]", fillcolor="#e58139"] ;
303 -> 305 ;
306 [label="X[32] <= 0.718\nentropy = 0.75\nsamples = 10\nvalue = [3, 11]", fillcolor="#6fb8ec"] ;
298 -> 306 ;
307 [label="entropy = 0.0\nsamples = 3\nvalue = [3, 0]", fillcolor="#e58139"] ;
306 -> 307 ;
308 [label="entropy = 0.0\nsamples = 7\nvalue = [0, 11]", fillcolor="#399de5"] ;
306 -> 308 ;
309 [label="X[34] <= 259.008\nentropy = 0.258\nsamples = 15\nvalue = [22, 1]", fillcolor="#e68742"] ;
297 -> 309 ;
310 [label="entropy = 0.0\nsamples = 12\nvalue = [19, 0]", fillcolor="#e58139"] ;
309 -> 310 ;
311 [label="X[48] <= 162.5\nentropy = 0.811\nsamples = 3\nvalue = [3, 1]", fillcolor="#eeab7b"] ;
309 -> 311 ;
312 [label="entropy = 0.0\nsamples = 2\nvalue = [3, 0]", fillcolor="#e58139"] ;
311 -> 312 ;
313 [label="entropy = 0.0\nsamples = 1\nvalue = [0, 1]", fillcolor="#399de5"] ;
311 -> 313 ;
314 [label="X[36] <= 2.0\nentropy = 0.286\nsamples = 23\nvalue = [38, 2]", fillcolor="#e68843"] ;
296 -> 314 ;
315 [label="entropy = 0.0\nsamples = 1\nvalue = [0, 1]", fillcolor="#399de5"] ;
314 -> 315 ;
316 [label="X[37] <= 3.0\nentropy = 0.172\nsamples = 22\nvalue = [38, 1]", fillcolor="#e6843e"] ;
314 -> 316 ;
317 [label="entropy = 0.0\nsamples = 21\nvalue = [38, 0]", fillcolor="#e58139"] ;
316 -> 317 ;
318 [label="entropy = 0.0\nsamples = 1\nvalue = [0, 1]", fillcolor="#399de5"] ;
316 -> 318 ;
319 [label="X[53] <= 32.5\nentropy = 0.229\nsamples = 15\nvalue = [26, 1]", fillcolor="#e68641"] ;
137 -> 319 ;
320 [label="entropy = 0.0\nsamples = 14\nvalue = [26, 0]", fillcolor="#e58139"] ;
319 -> 320 ;
321 [label="entropy = 0.0\nsamples = 1\nvalue = [0, 1]", fillcolor="#399de5"] ;
319 -> 321 ;
322 [label="entropy = 0.0\nsamples = 5\nvalue = [0, 9]", fillcolor="#399de5"] ;
136 -> 322 ;
323 [label="X[48] <= 150.0\nentropy = 0.937\nsamples = 236\nvalue = [129, 236]", fillcolor="#a5d3f3"] ;
135 -> 323 ;
324 [label="X[12] <= 4.602\nentropy = 0.767\nsamples = 86\nvalue = [30, 104]", fillcolor="#72b9ec"] ;
323 -> 324 ;
325 [label="X[17] <= 2.5\nentropy = 0.503\nsamples = 5\nvalue = [8, 1]", fillcolor="#e89152"] ;
324 -> 325 ;
326 [label="entropy = 0.0\nsamples = 4\nvalue = [8, 0]", fillcolor="#e58139"] ;
325 -> 326 ;
327 [label="entropy = 0.0\nsamples = 1\nvalue = [0, 1]", fillcolor="#399de5"] ;
325 -> 327 ;
328 [label="X[36] <= 10.5\nentropy = 0.671\nsamples = 81\nvalue = [22, 103]", fillcolor="#63b2eb"] ;
324 -> 328 ;
329 [label="X[6] <= 0.448\nentropy = 0.877\nsamples = 43\nvalue = [19, 45]", fillcolor="#8dc6f0"] ;
328 -> 329 ;
330 [label="X[9] <= 0.008\nentropy = 0.362\nsamples = 21\nvalue = [2, 27]", fillcolor="#48a4e7"] ;
329 -> 330 ;
331 [label="entropy = 0.0\nsamples = 15\nvalue = [0, 23]", fillcolor="#399de5"] ;
330 -> 331 ;
332 [label="X[54] <= 16.5\nentropy = 0.918\nsamples = 6\nvalue = [2, 4]", fillcolor="#9ccef2"] ;
330 -> 332 ;
333 [label="entropy = 0.0\nsamples = 2\nvalue = [2, 0]", fillcolor="#e58139"] ;
332 -> 333 ;
334 [label="entropy = 0.0\nsamples = 4\nvalue = [0, 4]", fillcolor="#399de5"] ;
332 -> 334 ;
335 [label="X[64] <= 44.5\nentropy = 0.999\nsamples = 22\nvalue = [17, 18]", fillcolor="#f4fafe"] ;
329 -> 335 ;
336 [label="X[16] <= 1.5\nentropy = 0.961\nsamples = 15\nvalue = [16, 10]", fillcolor="#f5d0b5"] ;
335 -> 336 ;
337 [label="X[42] <= 0.5\nentropy = 0.918\nsamples = 8\nvalue = [5, 10]", fillcolor="#9ccef2"] ;
336 -> 337 ;
338 [label="X[3] <= 3685.5\nentropy = 0.779\nsamples = 7\nvalue = [3, 10]", fillcolor="#74baed"] ;
337 -> 338 ;
339 [label="X[31] <= 0.5\nentropy = 0.439\nsamples = 6\nvalue = [1, 10]", fillcolor="#4da7e8"] ;
338 -> 339 ;
340 [label="entropy = 0.0\nsamples = 5\nvalue = [0, 10]", fillcolor="#399de5"] ;
339 -> 340 ;
341 [label="entropy = 0.0\nsamples = 1\nvalue = [1, 0]", fillcolor="#e58139"] ;
339 -> 341 ;
342 [label="entropy = 0.0\nsamples = 1\nvalue = [2, 0]", fillcolor="#e58139"] ;
338 -> 342 ;
343 [label="entropy = 0.0\nsamples = 1\nvalue = [2, 0]", fillcolor="#e58139"] ;
337 -> 343 ;
344 [label="entropy = 0.0\nsamples = 7\nvalue = [11, 0]", fillcolor="#e58139"] ;
336 -> 344 ;
345 [label="X[50] <= 30.5\nentropy = 0.503\nsamples = 7\nvalue = [1, 8]", fillcolor="#52a9e8"] ;
335 -> 345 ;
346 [label="entropy = 0.0\nsamples = 6\nvalue = [0, 8]", fillcolor="#399de5"] ;
345 -> 346 ;
347 [label="entropy = 0.0\nsamples = 1\nvalue = [1, 0]", fillcolor="#e58139"] ;
345 -> 347 ;
348 [label="X[56] <= 39.5\nentropy = 0.283\nsamples = 38\nvalue = [3, 58]", fillcolor="#43a2e6"] ;
328 -> 348 ;
349 [label="X[56] <= 37.5\nentropy = 0.529\nsamples = 16\nvalue = [3, 22]", fillcolor="#54aae9"] ;
348 -> 349 ;
350 [label="X[51] <= 35.5\nentropy = 0.276\nsamples = 13\nvalue = [1, 20]", fillcolor="#43a2e6"] ;
349 -> 350 ;
351 [label="entropy = 0.0\nsamples = 9\nvalue = [0, 15]", fillcolor="#399de5"] ;
350 -> 351 ;
352 [label="X[48] <= 130.0\nentropy = 0.65\nsamples = 4\nvalue = [1, 5]", fillcolor="#61b1ea"] ;
350 -> 352 ;
353 [label="entropy = 0.0\nsamples = 1\nvalue = [1, 0]", fillcolor="#e58139"] ;
352 -> 353 ;
354 [label="entropy = 0.0\nsamples = 3\nvalue = [0, 5]", fillcolor="#399de5"] ;
352 -> 354 ;
355 [label="X[37] <= 5.0\nentropy = 1.0\nsamples = 3\nvalue = [2, 2]", fillcolor="#ffffff"] ;
349 -> 355 ;
356 [label="entropy = 0.0\nsamples = 2\nvalue = [2, 0]", fillcolor="#e58139"] ;
355 -> 356 ;
357 [label="entropy = 0.0\nsamples = 1\nvalue = [0, 2]", fillcolor="#399de5"] ;
355 -> 357 ;
358 [label="entropy = 0.0\nsamples = 22\nvalue = [0, 36]", fillcolor="#399de5"] ;
348 -> 358 ;
359 [label="X[16] <= 10.5\nentropy = 0.985\nsamples = 150\nvalue = [99, 132]", fillcolor="#cee6f8"] ;
323 -> 359 ;
360 [label="X[50] <= 36.5\nentropy = 0.971\nsamples = 142\nvalue = [86, 129]", fillcolor="#bddef6"] ;
359 -> 360 ;
361 [label="X[11] <= 0.719\nentropy = 0.927\nsamples = 118\nvalue = [62, 119]", fillcolor="#a0d0f3"] ;
360 -> 361 ;
362 [label="X[29] <= 0.059\nentropy = 0.694\nsamples = 49\nvalue = [14, 61]", fillcolor="#66b3eb"] ;
361 -> 362 ;
363 [label="X[8] <= 0.875\nentropy = 0.998\nsamples = 14\nvalue = [10, 11]", fillcolor="#edf6fd"] ;
362 -> 363 ;
364 [label="X[16] <= 0.5\nentropy = 0.937\nsamples = 11\nvalue = [6, 11]", fillcolor="#a5d2f3"] ;
363 -> 364 ;
365 [label="entropy = 0.0\nsamples = 2\nvalue = [3, 0]", fillcolor="#e58139"] ;
364 -> 365 ;
366 [label="X[29] <= 0.008\nentropy = 0.75\nsamples = 9\nvalue = [3, 11]", fillcolor="#6fb8ec"] ;
364 -> 366 ;
367 [label="entropy = 0.0\nsamples = 6\nvalue = [0, 10]", fillcolor="#399de5"] ;
366 -> 367 ;
368 [label="X[38] <= 12.0\nentropy = 0.811\nsamples = 3\nvalue = [3, 1]", fillcolor="#eeab7b"] ;
366 -> 368 ;
369 [label="entropy = 0.0\nsamples = 2\nvalue = [3, 0]", fillcolor="#e58139"] ;
368 -> 369 ;
370 [label="entropy = 0.0\nsamples = 1\nvalue = [0, 1]", fillcolor="#399de5"] ;
368 -> 370 ;
371 [label="entropy = 0.0\nsamples = 3\nvalue = [4, 0]", fillcolor="#e58139"] ;
363 -> 371 ;
372 [label="X[58] <= 48.5\nentropy = 0.381\nsamples = 35\nvalue = [4, 50]", fillcolor="#49a5e7"] ;
362 -> 372 ;
373 [label="X[30] <= 0.002\nentropy = 0.159\nsamples = 28\nvalue = [1, 42]", fillcolor="#3e9fe6"] ;
372 -> 373 ;
374 [label="X[19] <= 0.5\nentropy = 0.65\nsamples = 5\nvalue = [1, 5]", fillcolor="#61b1ea"] ;
373 -> 374 ;
375 [label="entropy = 0.0\nsamples = 4\nvalue = [0, 5]", fillcolor="#399de5"] ;
374 -> 375 ;
376 [label="entropy = 0.0\nsamples = 1\nvalue = [1, 0]", fillcolor="#e58139"] ;
374 -> 376 ;
377 [label="entropy = 0.0\nsamples = 23\nvalue = [0, 37]", fillcolor="#399de5"] ;
373 -> 377 ;
378 [label="X[56] <= 41.0\nentropy = 0.845\nsamples = 7\nvalue = [3, 8]", fillcolor="#83c2ef"] ;
372 -> 378 ;
379 [label="entropy = 0.0\nsamples = 2\nvalue = [3, 0]", fillcolor="#e58139"] ;
378 -> 379 ;
380 [label="entropy = 0.0\nsamples = 5\nvalue = [0, 8]", fillcolor="#399de5"] ;
378 -> 380 ;
381 [label="X[48] <= 247.5\nentropy = 0.994\nsamples = 69\nvalue = [48, 58]", fillcolor="#ddeefb"] ;
361 -> 381 ;
382 [label="X[6] <= 0.289\nentropy = 1.0\nsamples = 62\nvalue = [48, 48]", fillcolor="#ffffff"] ;
381 -> 382 ;
383 [label="entropy = 0.0\nsamples = 5\nvalue = [0, 10]", fillcolor="#399de5"] ;
382 -> 383 ;
384 [label="X[8] <= 0.378\nentropy = 0.99\nsamples = 57\nvalue = [48, 38]", fillcolor="#fae5d6"] ;
382 -> 384 ;
385 [label="X[59] <= 27.5\nentropy = 0.987\nsamples = 41\nvalue = [26, 34]", fillcolor="#d0e8f9"] ;
384 -> 385 ;
386 [label="X[29] <= 0.286\nentropy = 0.994\nsamples = 29\nvalue = [24, 20]", fillcolor="#fbeade"] ;
385 -> 386 ;
387 [label="X[30] <= 0.109\nentropy = 0.837\nsamples = 19\nvalue = [22, 8]", fillcolor="#eeaf81"] ;
386 -> 387 ;
388 [label="entropy = 0.0\nsamples = 8\nvalue = [12, 0]", fillcolor="#e58139"] ;
387 -> 388 ;
389 [label="X[24] <= 185.42\nentropy = 0.991\nsamples = 11\nvalue = [10, 8]", fillcolor="#fae6d7"] ;
387 -> 389 ;
390 [label="X[58] <= 34.0\nentropy = 0.811\nsamples = 6\nvalue = [9, 3]", fillcolor="#eeab7b"] ;
389 -> 390 ;
391 [label="entropy = 0.0\nsamples = 1\nvalue = [0, 1]", fillcolor="#399de5"] ;
390 -> 391 ;
392 [label="X[3] <= 3825.0\nentropy = 0.684\nsamples = 5\nvalue = [9, 2]", fillcolor="#eb9d65"] ;
390 -> 392 ;
393 [label="X[58] <= 46.0\nentropy = 1.0\nsamples = 2\nvalue = [2, 2]", fillcolor="#ffffff"] ;
392 -> 393 ;
394 [label="entropy = 0.0\nsamples = 1\nvalue = [0, 2]", fillcolor="#399de5"] ;
393 -> 394 ;
395 [label="entropy = 0.0\nsamples = 1\nvalue = [2, 0]", fillcolor="#e58139"] ;
393 -> 395 ;
396 [label="entropy = 0.0\nsamples = 3\nvalue = [7, 0]", fillcolor="#e58139"] ;
392 -> 396 ;
397 [label="X[47] <= 185.42\nentropy = 0.65\nsamples = 5\nvalue = [1, 5]", fillcolor="#61b1ea"] ;
389 -> 397 ;
398 [label="X[33] <= 1.36\nentropy = 1.0\nsamples = 2\nvalue = [1, 1]", fillcolor="#ffffff"] ;
397 -> 398 ;
399 [label="entropy = 0.0\nsamples = 1\nvalue = [1, 0]", fillcolor="#e58139"] ;
398 -> 399 ;
400 [label="entropy = 0.0\nsamples = 1\nvalue = [0, 1]", fillcolor="#399de5"] ;
398 -> 400 ;
401 [label="entropy = 0.0\nsamples = 3\nvalue = [0, 4]", fillcolor="#399de5"] ;
397 -> 401 ;
402 [label="X[28] <= 0.272\nentropy = 0.592\nsamples = 10\nvalue = [2, 12]", fillcolor="#5aade9"] ;
386 -> 402 ;
403 [label="entropy = 0.0\nsamples = 1\nvalue = [1, 0]", fillcolor="#e58139"] ;
402 -> 403 ;
404 [label="X[3] <= 3607.0\nentropy = 0.391\nsamples = 9\nvalue = [1, 12]", fillcolor="#49a5e7"] ;
402 -> 404 ;
405 [label="entropy = 0.0\nsamples = 6\nvalue = [0, 9]", fillcolor="#399de5"] ;
404 -> 405 ;
406 [label="X[24] <= 180.34\nentropy = 0.811\nsamples = 3\nvalue = [1, 3]", fillcolor="#7bbeee"] ;
404 -> 406 ;
407 [label="entropy = 0.0\nsamples = 2\nvalue = [0, 3]", fillcolor="#399de5"] ;
406 -> 407 ;
408 [label="entropy = 0.0\nsamples = 1\nvalue = [1, 0]", fillcolor="#e58139"] ;
406 -> 408 ;
409 [label="X[55] <= 38.5\nentropy = 0.544\nsamples = 12\nvalue = [2, 14]", fillcolor="#55abe9"] ;
385 -> 409 ;
410 [label="entropy = 0.0\nsamples = 6\nvalue = [0, 9]", fillcolor="#399de5"] ;
409 -> 410 ;
411 [label="X[30] <= 0.535\nentropy = 0.863\nsamples = 6\nvalue = [2, 5]", fillcolor="#88c4ef"] ;
409 -> 411 ;
412 [label="X[52] <= 31.0\nentropy = 0.918\nsamples = 3\nvalue = [2, 1]", fillcolor="#f2c09c"] ;
411 -> 412 ;
413 [label="entropy = 0.0\nsamples = 2\nvalue = [2, 0]", fillcolor="#e58139"] ;
412 -> 413 ;
414 [label="entropy = 0.0\nsamples = 1\nvalue = [0, 1]", fillcolor="#399de5"] ;
412 -> 414 ;
415 [label="entropy = 0.0\nsamples = 3\nvalue = [0, 4]", fillcolor="#399de5"] ;
411 -> 415 ;
416 [label="X[29] <= 0.151\nentropy = 0.619\nsamples = 16\nvalue = [22, 4]", fillcolor="#ea985d"] ;
384 -> 416 ;
417 [label="X[56] <= 43.5\nentropy = 0.991\nsamples = 7\nvalue = [5, 4]", fillcolor="#fae6d7"] ;
416 -> 417 ;
418 [label="X[57] <= 45.5\nentropy = 0.918\nsamples = 4\nvalue = [2, 4]", fillcolor="#9ccef2"] ;
417 -> 418 ;
419 [label="entropy = 0.0\nsamples = 3\nvalue = [0, 4]", fillcolor="#399de5"] ;
418 -> 419 ;
420 [label="entropy = 0.0\nsamples = 1\nvalue = [2, 0]", fillcolor="#e58139"] ;
418 -> 420 ;
421 [label="entropy = 0.0\nsamples = 3\nvalue = [3, 0]", fillcolor="#e58139"] ;
417 -> 421 ;
422 [label="entropy = 0.0\nsamples = 9\nvalue = [17, 0]", fillcolor="#e58139"] ;
416 -> 422 ;
423 [label="entropy = 0.0\nsamples = 7\nvalue = [0, 10]", fillcolor="#399de5"] ;
381 -> 423 ;
424 [label="X[64] <= 44.5\nentropy = 0.874\nsamples = 24\nvalue = [24, 10]", fillcolor="#f0b58b"] ;
360 -> 424 ;
425 [label="X[30] <= 0.008\nentropy = 0.977\nsamples = 14\nvalue = [7, 10]", fillcolor="#c4e2f7"] ;
424 -> 425 ;
426 [label="entropy = 0.0\nsamples = 3\nvalue = [4, 0]", fillcolor="#e58139"] ;
425 -> 426 ;
427 [label="X[13] <= 645.046\nentropy = 0.779\nsamples = 11\nvalue = [3, 10]", fillcolor="#74baed"] ;
425 -> 427 ;
428 [label="entropy = 0.0\nsamples = 1\nvalue = [1, 0]", fillcolor="#e58139"] ;
427 -> 428 ;
429 [label="X[57] <= 40.0\nentropy = 0.65\nsamples = 10\nvalue = [2, 10]", fillcolor="#61b1ea"] ;
427 -> 429 ;
430 [label="entropy = 0.0\nsamples = 1\nvalue = [1, 0]", fillcolor="#e58139"] ;
429 -> 430 ;
431 [label="X[36] <= 6.5\nentropy = 0.439\nsamples = 9\nvalue = [1, 10]", fillcolor="#4da7e8"] ;
429 -> 431 ;
432 [label="entropy = 0.0\nsamples = 1\nvalue = [1, 0]", fillcolor="#e58139"] ;
431 -> 432 ;
433 [label="entropy = 0.0\nsamples = 8\nvalue = [0, 10]", fillcolor="#399de5"] ;
431 -> 433 ;
434 [label="entropy = 0.0\nsamples = 10\nvalue = [17, 0]", fillcolor="#e58139"] ;
424 -> 434 ;
435 [label="X[33] <= 0.038\nentropy = 0.696\nsamples = 8\nvalue = [13, 3]", fillcolor="#eb9e67"] ;
359 -> 435 ;
436 [label="entropy = 0.0\nsamples = 1\nvalue = [0, 1]", fillcolor="#399de5"] ;
435 -> 436 ;
437 [label="X[36] <= 31.0\nentropy = 0.567\nsamples = 7\nvalue = [13, 2]", fillcolor="#e99457"] ;
435 -> 437 ;
438 [label="X[41] <= 0.5\nentropy = 0.971\nsamples = 3\nvalue = [3, 2]", fillcolor="#f6d5bd"] ;
437 -> 438 ;
439 [label="entropy = 0.0\nsamples = 2\nvalue = [0, 2]", fillcolor="#399de5"] ;
438 -> 439 ;
440 [label="entropy = 0.0\nsamples = 1\nvalue = [3, 0]", fillcolor="#e58139"] ;
438 -> 440 ;
441 [label="entropy = 0.0\nsamples = 4\nvalue = [10, 0]", fillcolor="#e58139"] ;
437 -> 441 ;
442 [label="entropy = 0.0\nsamples = 72\nvalue = [0, 108]", fillcolor="#399de5"] ;
0 -> 442 [labeldistance=2.5, labelangle=-45, headlabel="False"] ;
}